digraph Tree {
node [shape=box] ;
0 [label="click <= 0.5\ngini = 0.461\nsamples = 769\nvalue = [277, 492]"] ;
1 [label="technic <= 1.0\ngini = 0.215\nsamples = 106\nvalue = [93, 13]"] ;
0 -> 1 [labeldistance=2.5, labelangle=45, headlabel="True"] ;
2 [label="registr <= 0.5\ngini = 0.161\nsamples = 102\nvalue = [93, 9]"] ;
1 -> 2 ;
3 [label="purchas <= 0.5\ngini = 0.114\nsamples = 99\nvalue = [93, 6]"] ;
2 -> 3 ;
4 [label="pag <= 0.5\ngini = 0.062\nsamples = 93\nvalue = [90, 3]"] ;
3 -> 4 ;
5 [label="belong <= 0.5\ngini = 0.043\nsamples = 92\nvalue = [90, 2]"] ;
4 -> 5 ;
6 [label="clickingno <= 0.5\ngini = 0.022\nsamples = 91\nvalue = [90, 1]"] ;
5 -> 6 ;
7 [label="gini = 0.0\nsamples = 90\nvalue = [90, 0]"] ;
6 -> 7 ;
8 [label="gini = 0.0\nsamples = 1\nvalue = [0, 1]"] ;
6 -> 8 ;
9 [label="gini = 0.0\nsamples = 1\nvalue = [0, 1]"] ;
5 -> 9 ;
10 [label="gini = 0.0\nsamples = 1\nvalue = [0, 1]"] ;
4 -> 10 ;
11 [label="can <= 0.5\ngini = 0.5\nsamples = 6\nvalue = [3, 3]"] ;
3 -> 11 ;
12 [label="gini = 0.0\nsamples = 3\nvalue = [0, 3]"] ;
11 -> 12 ;
13 [label="gini = 0.0\nsamples = 3\nvalue = [3, 0]"] ;
11 -> 13 ;
14 [label="gini = 0.0\nsamples = 3\nvalue = [0, 3]"] ;
2 -> 14 ;
15 [label="gini = 0.0\nsamples = 4\nvalue = [0, 4]"] ;
1 -> 15 ;
16 [label="remend <= 0.5\ngini = 0.401\nsamples = 663\nvalue = [184, 479]"] ;
0 -> 16 [labeldistance=2.5, labelangle=-45, headlabel="False"] ;
17 [label="earn <= 0.5\ngini = 0.343\nsamples = 601\nvalue = [132, 469]"] ;
16 -> 17 ;
18 [label="linkdown <= 1.5\ngini = 0.499\nsamples = 129\nvalue = [68, 61]"] ;
17 -> 18 ;
19 [label="websit <= 1.5\ngini = 0.382\nsamples = 66\nvalue = [17, 49]"] ;
18 -> 19 ;
20 [label="ad <= 0.5\ngini = 0.282\nsamples = 59\nvalue = [10, 49]"] ;
19 -> 20 ;
21 [label="will <= 0.5\ngini = 0.497\nsamples = 13\nvalue = [7, 6]"] ;
20 -> 21 ;
22 [label="roudycash <= 1.0\ngini = 0.346\nsamples = 9\nvalue = [7, 2]"] ;
21 -> 22 ;
23 [label="gini = 0.0\nsamples = 7\nvalue = [7, 0]"] ;
22 -> 23 ;
24 [label="gini = 0.0\nsamples = 2\nvalue = [0, 2]"] ;
22 -> 24 ;
25 [label="gini = 0.0\nsamples = 4\nvalue = [0, 4]"] ;
21 -> 25 ;
26 [label="without <= 0.5\ngini = 0.122\nsamples = 46\nvalue = [3, 43]"] ;
20 -> 26 ;
27 [label="gini = 0.0\nsamples = 43\nvalue = [0, 43]"] ;
26 -> 27 ;
28 [label="gini = 0.0\nsamples = 3\nvalue = [3, 0]"] ;
26 -> 28 ;
29 [label="gini = 0.0\nsamples = 7\nvalue = [7, 0]"] ;
19 -> 29 ;
30 [label="recruit <= 0.5\ngini = 0.308\nsamples = 63\nvalue = [51, 12]"] ;
18 -> 30 ;
31 [label="guy <= 1.5\ngini = 0.234\nsamples = 59\nvalue = [51, 8]"] ;
30 -> 31 ;
32 [label="clik <= 0.5\ngini = 0.163\nsamples = 56\nvalue = [51, 5]"] ;
31 -> 32 ;
33 [label="adsno <= 0.5\ngini = 0.105\nsamples = 54\nvalue = [51, 3]"] ;
32 -> 33 ;
34 [label="dhbwfan <= 0.5\ngini = 0.038\nsamples = 52\nvalue = [51, 1]"] ;
33 -> 34 ;
35 [label="gini = 0.0\nsamples = 51\nvalue = [51, 0]"] ;
34 -> 35 ;
36 [label="gini = 0.0\nsamples = 1\nvalue = [0, 1]"] ;
34 -> 36 ;
37 [label="gini = 0.0\nsamples = 2\nvalue = [0, 2]"] ;
33 -> 37 ;
38 [label="gini = 0.0\nsamples = 2\nvalue = [0, 2]"] ;
32 -> 38 ;
39 [label="gini = 0.0\nsamples = 3\nvalue = [0, 3]"] ;
31 -> 39 ;
40 [label="gini = 0.0\nsamples = 4\nvalue = [0, 4]"] ;
30 -> 40 ;
41 [label="monet <= 1.5\ngini = 0.234\nsamples = 472\nvalue = [64, 408]"] ;
17 -> 41 ;
42 [label="let <= 0.5\ngini = 0.204\nsamples = 459\nvalue = [53, 406]"] ;
41 -> 42 ;
43 [label="scam <= 3.5\ngini = 0.178\nsamples = 445\nvalue = [44, 401]"] ;
42 -> 43 ;
44 [label="youtub <= 28.5\ngini = 0.162\nsamples = 440\nvalue = [39, 401]"] ;
43 -> 44 ;
45 [label="ly <= 0.5\ngini = 0.148\nsamples = 436\nvalue = [35, 401]"] ;
44 -> 45 ;
46 [label="sell <= 4.5\ngini = 0.1\nsamples = 396\nvalue = [21, 375]"] ;
45 -> 46 ;
47 [label="someon <= 1.5\ngini = 0.087\nsamples = 393\nvalue = [18, 375]"] ;
46 -> 47 ;
48 [label="career <= 0.5\ngini = 0.074\nsamples = 390\nvalue = [15, 375]"] ;
47 -> 48 ;
49 [label="dfp <= 1.5\ngini = 0.056\nsamples = 384\nvalue = [11, 373]"] ;
48 -> 49 ;
50 [label="referr <= 9.5\ngini = 0.046\nsamples = 382\nvalue = [9, 373]"] ;
49 -> 50 ;
51 [label="tomorrow <= 0.5\ngini = 0.036\nsamples = 380\nvalue = [7, 373]"] ;
50 -> 51 ;
52 [label="shoot <= 0.5\ngini = 0.026\nsamples = 378\nvalue = [5, 373]"] ;
51 -> 52 ;
53 [label="howtomakeeasymoneyexpos <= 0.5\ngini = 0.021\nsamples = 377\nvalue = [4, 373]"] ;
52 -> 53 ;
54 [label="fiverr <= 16.5\ngini = 0.016\nsamples = 376\nvalue = [3, 373]"] ;
53 -> 54 ;
55 [label="autocashin <= 1.0\ngini = 0.011\nsamples = 375\nvalue = [2, 373]"] ;
54 -> 55 ;
56 [label="stuffthes <= 0.5\ngini = 0.005\nsamples = 374\nvalue = [1, 373]"] ;
55 -> 56 ;
57 [label="gini = 0.0\nsamples = 373\nvalue = [0, 373]"] ;
56 -> 57 ;
58 [label="gini = 0.0\nsamples = 1\nvalue = [1, 0]"] ;
56 -> 58 ;
59 [label="gini = 0.0\nsamples = 1\nvalue = [1, 0]"] ;
55 -> 59 ;
60 [label="gini = 0.0\nsamples = 1\nvalue = [1, 0]"] ;
54 -> 60 ;
61 [label="gini = 0.0\nsamples = 1\nvalue = [1, 0]"] ;
53 -> 61 ;
62 [label="gini = 0.0\nsamples = 1\nvalue = [1, 0]"] ;
52 -> 62 ;
63 [label="gini = 0.0\nsamples = 2\nvalue = [2, 0]"] ;
51 -> 63 ;
64 [label="gini = 0.0\nsamples = 2\nvalue = [2, 0]"] ;
50 -> 64 ;
65 [label="gini = 0.0\nsamples = 2\nvalue = [2, 0]"] ;
49 -> 65 ;
66 [label="grow <= 0.5\ngini = 0.444\nsamples = 6\nvalue = [4, 2]"] ;
48 -> 66 ;
67 [label="gini = 0.0\nsamples = 4\nvalue = [4, 0]"] ;
66 -> 67 ;
68 [label="gini = 0.0\nsamples = 2\nvalue = [0, 2]"] ;
66 -> 68 ;
69 [label="gini = 0.0\nsamples = 3\nvalue = [3, 0]"] ;
47 -> 69 ;
70 [label="gini = 0.0\nsamples = 3\nvalue = [3, 0]"] ;
46 -> 70 ;
71 [label="site <= 0.5\ngini = 0.455\nsamples = 40\nvalue = [14, 26]"] ;
45 -> 71 ;
72 [label="linkdown <= 1.5\ngini = 0.483\nsamples = 22\nvalue = [13, 9]"] ;
71 -> 72 ;
73 [label="gini = 0.0\nsamples = 10\nvalue = [10, 0]"] ;
72 -> 73 ;
74 [label="pleas <= 1.5\ngini = 0.375\nsamples = 12\nvalue = [3, 9]"] ;
72 -> 74 ;
75 [label="gini = 0.0\nsamples = 9\nvalue = [0, 9]"] ;
74 -> 75 ;
76 [label="gini = 0.0\nsamples = 3\nvalue = [3, 0]"] ;
74 -> 76 ;
77 [label="spam <= 0.5\ngini = 0.105\nsamples = 18\nvalue = [1, 17]"] ;
71 -> 77 ;
78 [label="gini = 0.0\nsamples = 17\nvalue = [0, 17]"] ;
77 -> 78 ;
79 [label="gini = 0.0\nsamples = 1\nvalue = [1, 0]"] ;
77 -> 79 ;
80 [label="gini = 0.0\nsamples = 4\nvalue = [4, 0]"] ;
44 -> 80 ;
81 [label="gini = 0.0\nsamples = 5\nvalue = [5, 0]"] ;
43 -> 81 ;
82 [label="binari <= 0.5\ngini = 0.459\nsamples = 14\nvalue = [9, 5]"] ;
42 -> 82 ;
83 [label="method <= 1.5\ngini = 0.298\nsamples = 11\nvalue = [9, 2]"] ;
82 -> 83 ;
84 [label="second <= 1.5\ngini = 0.18\nsamples = 10\nvalue = [9, 1]"] ;
83 -> 84 ;
85 [label="gini = 0.0\nsamples = 7\nvalue = [7, 0]"] ;
84 -> 85 ;
86 [label="linkdown <= 1.0\ngini = 0.444\nsamples = 3\nvalue = [2, 1]"] ;
84 -> 86 ;
87 [label="gini = 0.0\nsamples = 2\nvalue = [2, 0]"] ;
86 -> 87 ;
88 [label="gini = 0.0\nsamples = 1\nvalue = [0, 1]"] ;
86 -> 88 ;
89 [label="gini = 0.0\nsamples = 1\nvalue = [0, 1]"] ;
83 -> 89 ;
90 [label="gini = 0.0\nsamples = 3\nvalue = [0, 3]"] ;
82 -> 90 ;
91 [label="media <= 1.0\ngini = 0.26\nsamples = 13\nvalue = [11, 2]"] ;
41 -> 91 ;
92 [label="gini = 0.0\nsamples = 11\nvalue = [11, 0]"] ;
91 -> 92 ;
93 [label="gini = 0.0\nsamples = 2\nvalue = [0, 2]"] ;
91 -> 93 ;
94 [label="home <= 8.5\ngini = 0.271\nsamples = 62\nvalue = [52, 10]"] ;
16 -> 94 ;
95 [label="digit <= 0.5\ngini = 0.137\nsamples = 54\nvalue = [50, 4]"] ;
94 -> 95 ;
96 [label="ekoq <= 0.5\ngini = 0.074\nsamples = 52\nvalue = [50, 2]"] ;
95 -> 96 ;
97 [label="enrollapp <= 1.5\ngini = 0.038\nsamples = 51\nvalue = [50, 1]"] ;
96 -> 97 ;
98 [label="gini = 0.0\nsamples = 49\nvalue = [49, 0]"] ;
97 -> 98 ;
99 [label="gini = 0.5\nsamples = 2\nvalue = [1, 1]"] ;
97 -> 99 ;
100 [label="gini = 0.0\nsamples = 1\nvalue = [0, 1]"] ;
96 -> 100 ;
101 [label="gini = 0.0\nsamples = 2\nvalue = [0, 2]"] ;
95 -> 101 ;
102 [label="video <= 1.5\ngini = 0.375\nsamples = 8\nvalue = [2, 6]"] ;
94 -> 102 ;
103 [label="gini = 0.0\nsamples = 2\nvalue = [2, 0]"] ;
102 -> 103 ;
104 [label="gini = 0.0\nsamples = 6\nvalue = [0, 6]"] ;
102 -> 104 ;
}